digraph Tree {
node [shape=box, style="filled, rounded", color="black", fontname=helvetica] ;
edge [fontname=helvetica] ;
0 [label="petal width (cm) <= 0.8\ngini = 0.66\nsamples = 89\nvalue = [45, 56, 49]\nclass = versicolor", fillcolor="#f1fdf6"] ;
1 [label="gini = 0.0\nsamples = 28\nvalue = [45, 0, 0]\nclass = setosa", fillcolor="#e58139"] ;
0 -> 1 [labeldistance=2.5, labelangle=45, headlabel="True"] ;
2 [label="petal width (cm) <= 1.75\ngini = 0.5\nsamples = 61\nvalue = [0, 56, 49]\nclass = versicolor", fillcolor="#e6fcef"] ;
0 -> 2 [labeldistance=2.5, labelangle=-45, headlabel="False"] ;
3 [label="petal length (cm) <= 4.95\ngini = 0.15\nsamples = 34\nvalue = [0, 55, 5]\nclass = versicolor", fillcolor="#4be78c"] ;
2 -> 3 ;
4 [label="sepal width (cm) <= 2.55\ngini = 0.04\nsamples = 29\nvalue = [0, 53, 1]\nclass = versicolor", fillcolor="#3de583"] ;
3 -> 4 ;
5 [label="sepal width (cm) <= 2.4\ngini = 0.17\nsamples = 7\nvalue = [0, 10, 1]\nclass = versicolor", fillcolor="#4de88e"] ;
4 -> 5 ;
6 [label="gini = 0.0\nsamples = 5\nvalue = [0, 9, 0]\nclass = versicolor", fillcolor="#39e581"] ;
5 -> 6 ;
7 [label="sepal length (cm) <= 5.6\ngini = 0.5\nsamples = 2\nvalue = [0, 1, 1]\nclass = versicolor", fillcolor="#ffffff"] ;
5 -> 7 ;
8 [label="gini = 0.0\nsamples = 1\nvalue = [0, 0, 1]\nclass = virginica", fillcolor="#8139e5"] ;
7 -> 8 ;
9 [label="gini = 0.0\nsamples = 1\nvalue = [0, 1, 0]\nclass = versicolor", fillcolor="#39e581"] ;
7 -> 9 ;
10 [label="gini = 0.0\nsamples = 22\nvalue = [0, 43, 0]\nclass = versicolor", fillcolor="#39e581"] ;
4 -> 10 ;
11 [label="petal width (cm) <= 1.55\ngini = 0.44\nsamples = 5\nvalue = [0, 2, 4]\nclass = virginica", fillcolor="#c09cf2"] ;
3 -> 11 ;
12 [label="gini = 0.0\nsamples = 2\nvalue = [0, 0, 3]\nclass = virginica", fillcolor="#8139e5"] ;
11 -> 12 ;
13 [label="sepal length (cm) <= 6.95\ngini = 0.44\nsamples = 3\nvalue = [0, 2, 1]\nclass = versicolor", fillcolor="#9cf2c0"] ;
11 -> 13 ;
14 [label="gini = 0.0\nsamples = 2\nvalue = [0, 2, 0]\nclass = versicolor", fillcolor="#39e581"] ;
13 -> 14 ;
15 [label="gini = 0.0\nsamples = 1\nvalue = [0, 0, 1]\nclass = virginica", fillcolor="#8139e5"] ;
13 -> 15 ;
16 [label="sepal width (cm) <= 3.15\ngini = 0.04\nsamples = 27\nvalue = [0, 1, 44]\nclass = virginica", fillcolor="#843de6"] ;
2 -> 16 ;
17 [label="gini = 0.0\nsamples = 18\nvalue = [0, 0, 31]\nclass = virginica", fillcolor="#8139e5"] ;
16 -> 17 ;
18 [label="sepal length (cm) <= 6.1\ngini = 0.13\nsamples = 9\nvalue = [0, 1, 13]\nclass = virginica", fillcolor="#8b48e7"] ;
16 -> 18 ;
19 [label="gini = 0.0\nsamples = 1\nvalue = [0, 1, 0]\nclass = versicolor", fillcolor="#39e581"] ;
18 -> 19 ;
20 [label="gini = 0.0\nsamples = 8\nvalue = [0, 0, 13]\nclass = virginica", fillcolor="#8139e5"] ;
18 -> 20 ;
}